svm_type nu_svc
kernel_type linear
nr_class 7
total_sv 50
rho 0.0588235 -0.0808733 1.03956 0.376102 -0.0493136 1.10868 0.027027 1.15785 0.5 0 1.36335 1.13082 0.6 -0.0453125 0.600172 -1.17631 -1.46645 -1.18435 -0.6 -0.513514 2.11253
label 1 4 2 7 6 5 3
nr_sv 10 7 11 6 7 4 5
SV
0 0 0.1261679767183503 0.1100228830864555 0.1638277724744192 0 1:1 4:1 8:1 9:1 10:1 15:1 18:1 
0.3003754693366709 0 0 0 0 0 4:1 6:1 7:1 8:1 9:1 10:1 12:1 13:1 17:1 19:1 
0 0.01665461947277884 0 0 0 0 1:1 4:1 7:1 8:1 9:1 10:1 14:1 18:1 19:1 
0 0 0 0.01633043340759887 0 0 1:1 4:1 8:1 9:1 10:1 14:1 19:1 
0 0 0 0 0.09852613343919783 0 1:1 4:1 7:1 8:1 9:1 10:1 15:1 17:1 
0.1176470588235296 0.1756722691166623 0.1911146806386251 0.1060103883033934 0.2622013489787478 0.3131054252894934 1:1 3:1 4:1 6:1 7:1 9:1 10:1 15:1 17:1 19:1 
0.2878598247809761 0.0810652001318386 0.1031950195090584 0 0.1311640636143909 0.2706717892951416 4:1 6:1 7:1 8:1 9:1 10:1 12:1 13:1 17:1 19:1 
0 0.03403438223287925 0.05214141264486305 0 0 0.0145701713743132 1:1 4:1 8:1 9:1 10:1 14:1 17:1 
0 0.1756722691166623 0 0.132571336097727 0 7.055477817808947e-05 1:1 4:1 5:1 8:1 9:1 10:1 14:1 17:1 
0 0 0 0 0 0.3758208668790876 1:1 4:1 8:1 9:1 10:1 15:1 17:1 
-0 0.1009009009009009 0.3161996747460874 0 0.5 0.5454355893897096 3:1 6:1 7:1 8:1 9:1 12:1 13:1 17:1 
-0.1051314142678348 0 0 0 0 0 3:1 6:1 7:1 8:1 9:1 12:1 13:1 17:1 19:1 
-0.3003754693366709 0 0 0 0 0 3:1 6:1 7:1 8:1 9:1 12:1 13:1 17:1 19:1 
-0 0 0 0 0 0.08990679610820194 3:1 6:1 7:1 8:1 9:1 12:1 13:1 17:1 
-0 0.007207207207207182 0 0.25 0 0.09165566803249715 3:1 6:1 8:1 9:1 12:1 13:1 17:1 
-0 0 0.1575286367423623 0 0 0.3638731252490103 3:1 6:1 7:1 8:1 9:1 11:1 12:1 13:1 17:1 19:1 
-0.3003754693366709 0.2162162162162162 0 0 0 0 3:1 6:1 7:1 8:1 9:1 12:1 13:1 17:1 19:1 
-0 -0 0 0 0 1.700057505020946e-16 2:1 3:1 5:1 9:1 10:1 14:1 17:1 18:1 
-0 -0 0 0.1037037037037037 0 0 2:1 3:1 5:1 7:1 9:1 10:1 14:1 17:1 
-0 -0.007207207207207182 0.09545550486874338 0 0 0 2:1 3:1 5:1 6:1 9:1 10:1 14:1 17:1 
-0.002524218726315557 -0 0 0 0 0 2:1 3:1 5:1 9:1 10:1 14:1 17:1 19:1 
-0.1005402037649046 -0.05405405405405406 0.3700803178854603 0 0.1492086038961037 0.09933113335929365 2:1 3:1 7:1 9:1 10:1 14:1 17:1 
-0.01649924287361768 -0 0 0 0 0 2:1 3:1 5:1 9:1 10:1 14:1 17:1 18:1 
-0.1756722691166623 -0.2162162162162162 0.01556859049689472 0 0.1494216720779222 0 2:1 3:1 6:1 7:1 9:1 10:1 14:1 17:1 19:1 
-0.01416766503633021 -0 0 0 0 0.40045373409545 2:1 3:1 7:1 9:1 10:1 14:1 17:1 19:1 
-0 -0.04684684684684687 0 0 0.1494216720779223 0 2:1 3:1 5:1 6:1 7:1 9:1 10:1 14:1 17:1 
-0.08096970817519404 -0 0 0 0 0 2:1 3:1 5:1 6:1 9:1 10:1 14:1 17:1 19:1 
-0.09272543237779685 -0 0 0.2962962962962963 0 0.2002268670477246 2:1 3:1 5:1 9:1 10:1 14:1 17:1 
-0 -0.1055226289076301 -0 0 0 0 3:1 7:1 13:1 
-0.1949516494749012 -0.05264487135003984 -0.1219755387722923 0 0.5337055898971982 0.2528140686245424 3:1 6:1 7:1 15:1 
-0.1503045281462158 -0.05250954558078751 -0.1839498615688148 0.4708869943769274 0.06641932500217515 0.3319853985977555 7:1 10:1 11:1 16:1 17:1 
-0 -0.2630512656499923 -0 0 0 0 3:1 6:1 7:1 11:1 13:1 
-0 -0 -0 0.7052421549065845 0 0 3:1 6:1 7:1 16:1 
-0.12736291188978 -0 -0.1751790129099912 1.000544168329403 0.1333269051031868 0.358399714734842 3:1 10:1 13:1 
-0.09952773842595676 -0.25 -0 -1.588971521857428 0.4 0.3783783783783783 3:1 10:1 16:1 
-0 -0 -0.2962962962962963 -0 0 0 3:1 5:1 10:1 16:1 
-0.05492886555111838 -0 -0 -0 0 0 1:1 3:1 5:1 10:1 11:1 16:1 18:1 
-0.06635182561730447 -0 -0 -0 0 0 1:1 3:1 5:1 10:1 16:1 
-0 -0 -0.1037037037037037 -0.5877017957554872 0 0.1081081081081081 3:1 5:1 7:1 10:1 16:1 
-0.1275315476194322 -0 -0 -0 0 0 1:1 3:1 5:1 10:1 16:1 
-0.0165950636813629 -0 -0 -0 0 0 3:1 10:1 16:1 
-0.164184443713828 -0 -0.0584415584415585 -0.4690183231288485 -0 0 3:1 6:1 7:1 8:1 9:1 10:1 15:1 
-0 -0 -0 -0.06610213738322314 -0 0.2208067940552028 3:1 6:1 7:1 8:1 9:1 10:1 11:1 15:1 
-0.3278596592533778 -0.5 -0.3896103896103896 -0.06536203293900313 -0 2.225053078556263 3:1 6:1 7:1 8:1 9:1 10:1 15:1 17:1 
-0.1636752155395498 -0 -0 -0.1329693265514853 -0.4 0 3:1 6:1 8:1 9:1 10:1 15:1 
-0 -0 -0 -0.05423011821542712 -0 -0 3:1 7:1 8:1 9:1 10:1 11:1 13:1 17:1 
-0.3001215284227919 -0.6362582169027114 -0 -0.2790599254018639 -0 -0.4444444444444446 6:1 7:1 8:1 9:1 11:1 13:1 17:1 
-0 -0.3636237262598065 -0.2998709204728462 -0.1819792266846766 -0.2162162162162162 -0 3:1 7:1 8:1 9:1 10:1 13:1 17:1 
-0.4291626111449525 -0.09098923561690105 -0.4001408140296223 -0.4279299116551725 -0.2702702702702703 -0 3:1 9:1 10:1 15:1 17:1 19:1 
-0.2449546680484693 -0 -0 -0 -0 -2.001415428167022 3:1 7:1 8:1 9:1 10:1 15:1 17:1 
